<?xml version="1.0"?>
<opencv_storage>
<opencv_ml_boost>
  <format>3</format>
  <is_classifier>1</is_classifier>
  <var_all>19</var_all>
  <var_count>18</var_count>
  <ord_var_count>18</ord_var_count>
  <cat_var_count>1</cat_var_count>
  <training_params>
    <boosting_type>RealAdaboost</boosting_type>
    <use_surrogates>0</use_surrogates>
    <max_categories>10</max_categories>
    <regression_accuracy>9.9999997764825821e-03</regression_accuracy>
    <max_depth>1</max_depth>
    <min_sample_count>10</min_sample_count>
    <cross_validation_folds>0</cross_validation_folds>
    <weight_trimming_rate>0.</weight_trimming_rate></training_params>
  <global_var_idx>1</global_var_idx>
  <var_idx>
    0 1 2 3 4 5 6 7 8 9 10 11 12 13 14 15 16 17</var_idx>
  <var_type>
    0 0 0 0 0 0 0 0 0 0 0 0 0 0 0 0 0 0 1</var_type>
  <cat_ofs>
    0 0 0 0 0 0 0 0 0 0 0 0 0 0 0 0 0 0 0 0 0 0 0 0 0 0 0 0 0 0 0 0 0 0
    0 0</cat_ofs>
  <class_labels>
    1 2</class_labels>
  <missing_subst>
    0. 0. 0. 0. 0. 0. 0. 0. 0. 0. 0. 0. 0. 0. 0. 0. 0. 0. 0.</missing_subst>
  <ntrees>500</ntrees>
  <trees>
    <_>
      <nodes>
        <_>
          <depth>0</depth>
          <value>0.</value>
          <splits>
            <_><var>3</var>
              <quality>2.6404127478599548e-01</quality>
              <le>1.4235050417482853e-02</le></_></splits></_>
        <_>
          <depth>1</depth>
          <value>4.2931172796325945e-01</value></_>
        <_>
          <depth>1</depth>
          <value>-7.7940141879319991e-01</value></_></nodes></_>
    <_>
      <nodes>
        <_>
          <depth>0</depth>
          <value>4.5320063052356918e-09</value>
          <splits>
            <_><var>0</var>
              <quality>1.7948214709758759e-01</quality>
              <le>2.8850000000000000e+02</le></_></splits></_>
        <_>
          <depth>1</depth>
          <value>-2.0815296547664502e-01</value></_>
        <_>
          <depth>1</depth>
          <value>1.3526539054050055e+00</value></_></nodes></_>
    <_>
      <nodes>
        <_>
          <depth>0</depth>
          <value>3.9322369650125807e-09</value>
          <splits>
            <_><var>11</var>
              <quality>1.0902602225542068e-01</quality>
              <le>4.9093651771545410e-01</le></_></splits></_>
        <_>
          <depth>1</depth>
          <value>-1.7632936556935286e-01</value></_>
        <_>
          <depth>1</depth>
          <value>7.3268268502610423e-01</value></_></nodes></_>
    <_>
      <nodes>
        <_>
          <depth>0</depth>
          <value>-8.6475216069586987e-09</value>
          <splits>
            <_><var>13</var>
              <quality>9.0278312563896179e-02</quality>
              <le>7.5790202617645264e-01</le></_></splits></_>
        <_>
          <depth>1</depth>
          <value>-1.6598636864732175e-01</value></_>
        <_>
          <depth>1</depth>
          <value>6.1677093875663069e-01</value></_></nodes></_>
    <_>
      <nodes>
        <_>
          <depth>0</depth>
          <value>7.4462757627211233e-09</value>
          <splits>
            <_><var>5</var>
              <quality>3.7207569926977158e-02</quality>
              <le>6.6912353038787842e-01</le></_></splits></_>
        <_>
          <depth>1</depth>
          <value>1.8531637999337874e-01</value></_>
        <_>
          <depth>1</depth>
          <value>-2.0593438732725045e-01</value></_></nodes></_>
    <_>
      <nodes>
        <_>
          <depth>0</depth>
          <value>-5.5873683488937611e-10</value>
          <splits>
            <_><var>14</var>
              <quality>3.8318380713462830e-02</quality>
              <le>8.0029153823852539e-01</le></_></splits></_>
        <_>
          <depth>1</depth>
          <value>-5.3298224985622304e-02</value></_>
        <_>
          <depth>1</depth>
          <value>9.0686376758597453e-01</value></_></nodes></_>
    <_>
      <nodes>
        <_>
          <depth>0</depth>
          <value>-2.5494495410177010e-10</value>
          <splits>
            <_><var>11</var>
              <quality>2.4641185998916626e-02</quality>
              <le>9.1533642262220383e-03</le></_></splits></_>
        <_>
          <depth>1</depth>
          <value>7.4447658446787568e-01</value></_>
        <_>
          <depth>1</depth>
          <value>-3.9018744589189476e-02</value></_></nodes></_>
    <_>
      <nodes>
        <_>
          <depth>0</depth>
          <value>-4.9990500652918260e-10</value>
          <splits>
            <_><var>14</var>
              <quality>1.9646920263767242e-02</quality>
              <le>-1.5811400115489960e-01</le></_></splits></_>
        <_>
          <depth>1</depth>
          <value>1.3793173315044966e+00</value></_>
        <_>
          <depth>1</depth>
          <value>-2.2309511619968584e-02</value></_></nodes></_>
    <_>
      <nodes>
        <_>
          <depth>0</depth>
          <value>8.4549722707117513e-10</value>
          <splits>
            <_><var>9</var>
              <quality>1.9397940486669540e-02</quality>
              <le>3.1729249749332666e-03</le></_></splits></_>
        <_>
          <depth>1</depth>
          <value>1.9354929377833496e+00</value></_>
        <_>
          <depth>1</depth>
          <value>-2.0226323052416655e-02</value></_></nodes></_>
    <_>
      <nodes>
        <_>
          <depth>0</depth>
          <value>5.9513705039757140e-10</value>
          <splits>
            <_><var>0</var>
              <quality>1.5229649841785431e-02</quality>
              <le>9.3150000000000000e+02</le></_></splits></_>
        <_>
          <depth>1</depth>
          <value>-1.7908076313721988e-02</value></_>
        <_>
          <depth>1</depth>
          <value>1.2580498449314175e+00</value></_></nodes></_>
    <_>
      <nodes>
        <_>
          <depth>0</depth>
          <value>-4.9322967956469184e-10</value>
          <splits>
            <_><var>0</var>
              <quality>2.5553604587912560e-02</quality>
              <le>2.8850000000000000e+02</le></_></splits></_>
        <_>
          <depth>1</depth>
          <value>5.0145444064117833e-02</value></_>
        <_>
          <depth>1</depth>
          <value>-5.6275248670250377e-01</value></_></nodes></_>
    <_>
      <nodes>
        <_>
          <depth>0</depth>
          <value>3.8137915033708031e-10</value>
          <splits>
            <_><var>10</var>
              <quality>2.1879481151700020e-02</quality>
              <le>2.5923550128936768e-01</le></_></splits></_>
        <_>
          <depth>1</depth>
          <value>2.7223659813161499e-01</value></_>
        <_>
          <depth>1</depth>
          <value>-8.2531962318017363e-02</value></_></nodes></_>
    <_>
      <nodes>
        <_>
          <depth>0</depth>
          <value>1.9550916437524161e-10</value>
          <splits>
            <_><var>10</var>
              <quality>1.6934361308813095e-02</quality>
              <le>4.9524950981140137e-01</le></_></splits></_>
        <_>
          <depth>1</depth>
          <value>-8.1303211500866557e-02</value></_>
        <_>
          <depth>1</depth>
          <value>2.1185905105198755e-01</value></_></nodes></_>
    <_>
      <nodes>
        <_>
          <depth>0</depth>
          <value>-7.5903278164860807e-10</value>
          <splits>
            <_><var>3</var>
              <quality>1.1977904476225376e-02</quality>
              <le>1.4160450547933578e-02</le></_></splits></_>
        <_>
          <depth>1</depth>
          <value>-7.3940280310967541e-02</value></_>
        <_>
          <depth>1</depth>
          <value>1.6373714651906165e-01</value></_></nodes></_>
    <_>
      <nodes>
        <_>
          <depth>0</depth>
          <value>-2.6883770282258159e-09</value>
          <splits>
            <_><var>1</var>
              <quality>2.0433209836483002e-02</quality>
              <le>4.5000000000000000e+00</le></_></splits></_>
        <_>
          <depth>1</depth>
          <value>2.0162703471515775e-01</value></_>
        <_>
          <depth>1</depth>
          <value>-1.0307469923868917e-01</value></_></nodes></_>
    <_>
      <nodes>
        <_>
          <depth>0</depth>
          <value>1.5303029930920581e-09</value>
          <splits>
            <_><var>5</var>
              <quality>1.2370320968329906e-02</quality>
              <le>5.0125598907470703e-01</le></_></splits></_>
        <_>
          <depth>1</depth>
          <value>1.1255681165388508e-01</value></_>
        <_>
          <depth>1</depth>
          <value>-1.1081805996288788e-01</value></_></nodes></_>
    <_>
      <nodes>
        <_>
          <depth>0</depth>
          <value>-2.5956667993527339e-09</value>
          <splits>
            <_><var>3</var>
              <quality>9.5371250063180923e-03</quality>
              <le>1.4160450547933578e-02</le></_></splits></_>
        <_>
          <depth>1</depth>
          <value>-6.5671363071556133e-02</value></_>
        <_>
          <depth>1</depth>
          <value>1.4647229862831457e-01</value></_></nodes></_>
    <_>
      <nodes>
        <_>
          <depth>0</depth>
          <value>-2.7400673471984241e-09</value>
          <splits>
            <_><var>2</var>
              <quality>7.1174688637256622e-03</quality>
              <le>1.1500000000000000e+01</le></_></splits></_>
        <_>
          <depth>1</depth>
          <value>3.2472836984155845e-02</value></_>
        <_>
          <depth>1</depth>
          <value>-2.2287781421371025e-01</value></_></nodes></_>
    <_>
      <nodes>
        <_>
          <depth>0</depth>
          <value>-4.9349452326747756e-10</value>
          <splits>
            <_><var>7</var>
              <quality>9.3562584370374680e-03</quality>
              <le>2.6459999382495880e-02</le></_></splits></_>
        <_>
          <depth>1</depth>
          <value>1.8247008603063422e-01</value></_>
        <_>
          <depth>1</depth>
          <value>-5.1889917787833161e-02</value></_></nodes></_>
    <_>
      <nodes>
        <_>
          <depth>0</depth>
          <value>1.3615870634643844e-09</value>
          <splits>
            <_><var>13</var>
              <quality>6.5755452960729599e-03</quality>
              <le>7.5816404819488525e-01</le></_></splits></_>
        <_>
          <depth>1</depth>
          <value>4.0177472823945931e-02</value></_>
        <_>
          <depth>1</depth>
          <value>-1.6523817010187894e-01</value></_></nodes></_>
    <_>
      <nodes>
        <_>
          <depth>0</depth>
          <value>1.0489009649828174e-09</value>
          <splits>
            <_><var>14</var>
              <quality>1.1095972731709480e-02</quality>
              <le>3.5494199395179749e-01</le></_></splits></_>
        <_>
          <depth>1</depth>
          <value>-5.8672952107354584e-02</value></_>
        <_>
          <depth>1</depth>
          <value>1.9164485911842269e-01</value></_></nodes></_>
    <_>
      <nodes>
        <_>
          <depth>0</depth>
          <value>2.4749979837238076e-10</value>
          <splits>
            <_><var>7</var>
              <quality>7.2551527991890907e-03</quality>
              <le>1.3517749309539795e-01</le></_></splits></_>
        <_>
          <depth>1</depth>
          <value>-9.6902091843640820e-02</value></_>
        <_>
          <depth>1</depth>
          <value>7.5246859443110839e-02</value></_></nodes></_>
    <_>
      <nodes>
        <_>
          <depth>0</depth>
          <value>-7.5729417238940875e-10</value>
          <splits>
            <_><var>12</var>
              <quality>6.8551031872630119e-03</quality>
              <le>9.9974250793457031e-01</le></_></splits></_>
        <_>
          <depth>1</depth>
          <value>4.3391486866949477e-02</value></_>
        <_>
          <depth>1</depth>
          <value>-1.5941873059658521e-01</value></_></nodes></_>
    <_>
      <nodes>
        <_>
          <depth>0</depth>
          <value>-9.9512065353740850e-10</value>
          <splits>
            <_><var>5</var>
              <quality>5.5850381031632423e-03</quality>
              <le>1.5372800407931209e-03</le></_></splits></_>
        <_>
          <depth>1</depth>
          <value>-6.1975311214563999e-01</value></_>
        <_>
          <depth>1</depth>
          <value>1.0137339398535825e-02</value></_></nodes></_>
    <_>
      <nodes>
        <_>
          <depth>0</depth>
          <value>4.2625636335762899e-10</value>
          <splits>
            <_><var>5</var>
              <quality>6.7599331960082054e-03</quality>
              <le>6.4464150927960873e-03</le></_></splits></_>
        <_>
          <depth>1</depth>
          <value>2.2176207215358265e-01</value></_>
        <_>
          <depth>1</depth>
          <value>-3.0990806046122980e-02</value></_></nodes></_>
    <_>
      <nodes>
        <_>
          <depth>0</depth>
          <value>-9.7115937608362396e-10</value>
          <splits>
            <_><var>8</var>
              <quality>6.3213380053639412e-03</quality>
              <le>9.9372696876525879e-01</le></_></splits></_>
        <_>
          <depth>1</depth>
          <value>4.4774099569233818e-02</value></_>
        <_>
          <depth>1</depth>
          <value>-1.4222859566048560e-01</value></_></nodes></_>
    <_>
      <nodes>
        <_>
          <depth>0</depth>
          <value>-2.1879440529469060e-09</value>
          <splits>
            <_><var>12</var>
              <quality>5.0240256823599339e-03</quality>
              <le>9.5656895637512207e-01</le></_></splits></_>
        <_>
          <depth>1</depth>
          <value>-5.5560193359349502e-02</value></_>
        <_>
          <depth>1</depth>
          <value>9.0766379620309590e-02</value></_></nodes></_>
    <_>
      <nodes>
        <_>
          <depth>0</depth>
          <value>1.0812792871594088e-09</value>
          <splits>
            <_><var>3</var>
              <quality>6.6335061565041542e-03</quality>
              <le>1.2012650072574615e-01</le></_></splits></_>
        <_>
          <depth>1</depth>
          <value>-4.8689575193959542e-02</value></_>
        <_>
          <depth>1</depth>
          <value>1.3720292693120559e-01</value></_></nodes></_>
    <_>
      <nodes>
        <_>
          <depth>0</depth>
          <value>-2.5783917845113358e-09</value>
          <splits>
            <_><var>17</var>
              <quality>4.1672186926007271e-03</quality>
              <le>4.3501152038574219e+01</le></_></splits></_>
        <_>
          <depth>1</depth>
          <value>1.6589288325527959e-02</value></_>
        <_>
          <depth>1</depth>
          <value>-2.5671708875032195e-01</value></_></nodes></_>
    <_>
      <nodes>
        <_>
          <depth>0</depth>
          <value>4.4260550760405392e-10</value>
          <splits>
            <_><var>15</var>
              <quality>5.1647303625941277e-03</quality>
              <le>3.1085150241851807e+00</le></_></splits></_>
        <_>
          <depth>1</depth>
          <value>-5.7108266183554565e-02</value></_>
        <_>
          <depth>1</depth>
          <value>9.0784411830404130e-02</value></_></nodes></_>
    <_>
      <nodes>
        <_>
          <depth>0</depth>
          <value>3.3466651660942519e-10</value>
          <splits>
            <_><var>2</var>
              <quality>4.3411864899098873e-03</quality>
              <le>5.5000000000000000e+00</le></_></splits></_>
        <_>
          <depth>1</depth>
          <value>2.9766422032014010e-02</value></_>
        <_>
          <depth>1</depth>
          <value>-1.4693314457862305e-01</value></_></nodes></_>
    <_>
      <nodes>
        <_>
          <depth>0</depth>
          <value>-8.2065815321843059e-10</value>
          <splits>
            <_><var>11</var>
              <quality>4.1152848862111568e-03</quality>
              <le>4.9993249773979187e-01</le></_></splits></_>
        <_>
          <depth>1</depth>
          <value>5.8097004277902591e-03</value></_>
        <_>
          <depth>1</depth>
          <value>-8.8387456126067443e-01</value></_></nodes></_>
    <_>
      <nodes>
        <_>
          <depth>0</depth>
          <value>-3.0191854581096959e-10</value>
          <splits>
            <_><var>11</var>
              <quality>4.9146180972456932e-03</quality>
              <le>4.9824899435043335e-01</le></_></splits></_>
        <_>
          <depth>1</depth>
          <value>-9.2146487645136596e-03</value></_>
        <_>
          <depth>1</depth>
          <value>5.9483416458491833e-01</value></_></nodes></_>
    <_>
      <nodes>
        <_>
          <depth>0</depth>
          <value>4.3584646983607347e-10</value>
          <splits>
            <_><var>11</var>
              <quality>4.4594365172088146e-03</quality>
              <le>4.9160850048065186e-01</le></_></splits></_>
        <_>
          <depth>1</depth>
          <value>2.9560027956498518e-02</value></_>
        <_>
          <depth>1</depth>
          <value>-1.5206568565588993e-01</value></_></nodes></_>
    <_>
      <nodes>
        <_>
          <depth>0</depth>
          <value>-7.4821399132423668e-10</value>
          <splits>
            <_><var>11</var>
              <quality>5.9846355579793453e-03</quality>
              <le>4.7827899456024170e-01</le></_></splits></_>
        <_>
          <depth>1</depth>
          <value>-5.1512827010483951e-02</value></_>
        <_>
          <depth>1</depth>
          <value>1.1680870135107738e-01</value></_></nodes></_>
    <_>
      <nodes>
        <_>
          <depth>0</depth>
          <value>-1.6641368311081207e-09</value>
          <splits>
            <_><var>0</var>
              <quality>4.4990130700170994e-03</quality>
              <le>2.5000000000000000e+00</le></_></splits></_>
        <_>
          <depth>1</depth>
          <value>-1.5345025479319147e-01</value></_>
        <_>
          <depth>1</depth>
          <value>2.9557399165690848e-02</value></_></nodes></_>
    <_>
      <nodes>
        <_>
          <depth>0</depth>
          <value>-9.1061563927896188e-10</value>
          <splits>
            <_><var>0</var>
              <quality>3.3268881961703300e-03</quality>
              <le>2.7655000000000000e+03</le></_></splits></_>
        <_>
          <depth>1</depth>
          <value>-3.6562952806721660e-03</value></_>
        <_>
          <depth>1</depth>
          <value>1.5270078429134291e+00</value></_></nodes></_>
    <_>
      <nodes>
        <_>
          <depth>0</depth>
          <value>1.2107403966820796e-10</value>
          <splits>
            <_><var>13</var>
              <quality>3.6566271446645260e-03</quality>
              <le>7.5816404819488525e-01</le></_></splits></_>
        <_>
          <depth>1</depth>
          <value>3.0410929185901978e-02</value></_>
        <_>
          <depth>1</depth>
          <value>-1.2086271603681770e-01</value></_></nodes></_>
    <_>
      <nodes>
        <_>
          <depth>0</depth>
          <value>2.0830359655046029e-10</value>
          <splits>
            <_><var>14</var>
              <quality>4.8816963098943233e-03</quality>
              <le>1.2060699462890625e+00</le></_></splits></_>
        <_>
          <depth>1</depth>
          <value>-8.9939349204499509e-03</value></_>
        <_>
          <depth>1</depth>
          <value>6.0810404878913937e-01</value></_></nodes></_>
    <_>
      <nodes>
        <_>
          <depth>0</depth>
          <value>-9.8359542742525570e-11</value>
          <splits>
            <_><var>1</var>
              <quality>3.1919926404953003e-03</quality>
              <le>3.5000000000000000e+00</le></_></splits></_>
        <_>
          <depth>1</depth>
          <value>9.2661442867205776e-02</value></_>
        <_>
          <depth>1</depth>
          <value>-3.4560194908941036e-02</value></_></nodes></_>
    <_>
      <nodes>
        <_>
          <depth>0</depth>
          <value>1.5459689060551412e-09</value>
          <splits>
            <_><var>3</var>
              <quality>3.1586021650582552e-03</quality>
              <le>4.9857649207115173e-01</le></_></splits></_>
        <_>
          <depth>1</depth>
          <value>-1.9545247484581002e-02</value></_>
        <_>
          <depth>1</depth>
          <value>1.6305502682171955e-01</value></_></nodes></_>
    <_>
      <nodes>
        <_>
          <depth>0</depth>
          <value>-3.4217007017273880e-10</value>
          <splits>
            <_><var>0</var>
              <quality>4.4293245300650597e-03</quality>
              <le>2.8850000000000000e+02</le></_></splits></_>
        <_>
          <depth>1</depth>
          <value>2.0400088836705216e-02</value></_>
        <_>
          <depth>1</depth>
          <value>-2.2066617721092183e-01</value></_></nodes></_>
    <_>
      <nodes>
        <_>
          <depth>0</depth>
          <value>-8.6045892640683563e-11</value>
          <splits>
            <_><var>6</var>
              <quality>2.2610877640545368e-03</quality>
              <le>3.7840399891138077e-02</le></_></splits></_>
        <_>
          <depth>1</depth>
          <value>8.2719977589581342e-02</value></_>
        <_>
          <depth>1</depth>
          <value>-2.7403414340362753e-02</value></_></nodes></_>
    <_>
      <nodes>
        <_>
          <depth>0</depth>
          <value>7.6958661606345167e-10</value>
          <splits>
            <_><var>6</var>
              <quality>4.5421291142702103e-03</quality>
              <le>1.5287798643112183e-01</le></_></splits></_>
        <_>
          <depth>1</depth>
          <value>-7.4070178667814901e-02</value></_>
        <_>
          <depth>1</depth>
          <value>6.1511532030311615e-02</value></_></nodes></_>
    <_>
      <nodes>
        <_>
          <depth>0</depth>
          <value>-1.0483114376679242e-11</value>
          <splits>
            <_><var>7</var>
              <quality>2.9659382998943329e-03</quality>
              <le>4.9701201915740967e-01</le></_></splits></_>
        <_>
          <depth>1</depth>
          <value>1.7332521395018348e-02</value></_>
        <_>
          <depth>1</depth>
          <value>-1.7283770624417100e-01</value></_></nodes></_>
    <_>
      <nodes>
        <_>
          <depth>0</depth>
          <value>-8.9611568246194995e-10</value>
          <splits>
            <_><var>9</var>
              <quality>3.5293716937303543e-03</quality>
              <le>6.9384248927235603e-03</le></_></splits></_>
        <_>
          <depth>1</depth>
          <value>2.4549129437675063e-01</value></_>
        <_>
          <depth>1</depth>
          <value>-1.4665477678255106e-02</value></_></nodes></_>
    <_>
      <nodes>
        <_>
          <depth>0</depth>
          <value>1.2445222628670796e-10</value>
          <splits>
            <_><var>11</var>
              <quality>3.5059761721640825e-03</quality>
              <le>4.9165898561477661e-01</le></_></splits></_>
        <_>
          <depth>1</depth>
          <value>2.5952197935000993e-02</value></_>
        <_>
          <depth>1</depth>
          <value>-1.3595545298490244e-01</value></_></nodes></_>
    <_>
      <nodes>
        <_>
          <depth>0</depth>
          <value>2.6143354141354496e-10</value>
          <splits>
            <_><var>7</var>
              <quality>3.2983601558953524e-03</quality>
              <le>4.9351251125335693e-01</le></_></splits></_>
        <_>
          <depth>1</depth>
          <value>-2.7573309296398441e-02</value></_>
        <_>
          <depth>1</depth>
          <value>1.2022774889271727e-01</value></_></nodes></_>
    <_>
      <nodes>
        <_>
          <depth>0</depth>
          <value>8.5604123716270403e-10</value>
          <splits>
            <_><var>10</var>
              <quality>4.2404313571751118e-03</quality>
              <le>4.9993249773979187e-01</le></_></splits></_>
        <_>
          <depth>1</depth>
          <value>3.3704101426858916e-02</value></_>
        <_>
          <depth>1</depth>
          <value>-1.2653212650361190e-01</value></_></nodes></_>
    <_>
      <nodes>
        <_>
          <depth>0</depth>
          <value>-1.3259051651986905e-09</value>
          <splits>
            <_><var>12</var>
              <quality>2.6314321439713240e-03</quality>
              <le>9.9974250793457031e-01</le></_></splits></_>
        <_>
          <depth>1</depth>
          <value>2.6810252859671681e-02</value></_>
        <_>
          <depth>1</depth>
          <value>-9.8490970941492853e-02</value></_></nodes></_>
    <_>
      <nodes>
        <_>
          <depth>0</depth>
          <value>-6.9543743034874209e-10</value>
          <splits>
            <_><var>9</var>
              <quality>2.5008786469697952e-03</quality>
              <le>1.3879550620913506e-02</le></_></splits></_>
        <_>
          <depth>1</depth>
          <value>1.2252517635925378e-01</value></_>
        <_>
          <depth>1</depth>
          <value>-2.0516057080291531e-02</value></_></nodes></_>
    <_>
      <nodes>
        <_>
          <depth>0</depth>
          <value>-6.5930105862701879e-10</value>
          <splits>
            <_><var>5</var>
              <quality>2.8274140786379576e-03</quality>
              <le>6.1539048328995705e-03</le></_></splits></_>
        <_>
          <depth>1</depth>
          <value>-1.6295225322214626e-01</value></_>
        <_>
          <depth>1</depth>
          <value>1.7506274934102221e-02</value></_></nodes></_>
    <_>
      <nodes>
        <_>
          <depth>0</depth>
          <value>2.2173041175989800e-10</value>
          <splits>
            <_><var>8</var>
              <quality>2.4878748226910830e-03</quality>
              <le>9.7245901823043823e-01</le></_></splits></_>
        <_>
          <depth>1</depth>
          <value>-3.5265725812577482e-02</value></_>
        <_>
          <depth>1</depth>
          <value>7.0693309119740672e-02</value></_></nodes></_>
    <_>
      <nodes>
        <_>
          <depth>0</depth>
          <value>3.5856229084107706e-10</value>
          <splits>
            <_><var>8</var>
              <quality>2.8137248009443283e-03</quality>
              <le>6.7724394798278809e-01</le></_></splits></_>
        <_>
          <depth>1</depth>
          <value>6.4092632316094356e-02</value></_>
        <_>
          <depth>1</depth>
          <value>-4.3989358343086454e-02</value></_></nodes></_>
    <_>
      <nodes>
        <_>
          <depth>0</depth>
          <value>4.5903725244290051e-10</value>
          <splits>
            <_><var>11</var>
              <quality>2.9490250162780285e-03</quality>
              <le>1.3718800619244576e-02</le></_></splits></_>
        <_>
          <depth>1</depth>
          <value>-2.2405329162151649e-01</value></_>
        <_>
          <depth>1</depth>
          <value>1.3382471202851609e-02</value></_></nodes></_>
    <_>
      <nodes>
        <_>
          <depth>0</depth>
          <value>1.3757062154224149e-10</value>
          <splits>
            <_><var>0</var>
              <quality>2.4002706632018089e-03</quality>
              <le>6.4450000000000000e+02</le></_></splits></_>
        <_>
          <depth>1</depth>
          <value>-8.0840634721829428e-03</value></_>
        <_>
          <depth>1</depth>
          <value>3.0613877889433300e-01</value></_></nodes></_>
    <_>
      <nodes>
        <_>
          <depth>0</depth>
          <value>-1.7426171619855634e-10</value>
          <splits>
            <_><var>5</var>
              <quality>2.7006503660231829e-03</quality>
              <le>9.8481452465057373e-01</le></_></splits></_>
        <_>
          <depth>1</depth>
          <value>1.5341477000668360e-02</value></_>
        <_>
          <depth>1</depth>
          <value>-1.7790307042822925e-01</value></_></nodes></_>
    <_>
      <nodes>
        <_>
          <depth>0</depth>
          <value>4.7554093973313442e-10</value>
          <splits>
            <_><var>7</var>
              <quality>2.9476354829967022e-03</quality>
              <le>1.7281301319599152e-02</le></_></splits></_>
        <_>
          <depth>1</depth>
          <value>1.1492423491477802e-01</value></_>
        <_>
          <depth>1</depth>
          <value>-2.5767031140371276e-02</value></_></nodes></_>
    <_>
      <nodes>
        <_>
          <depth>0</depth>
          <value>3.4375324797060763e-10</value>
          <splits>
            <_><var>7</var>
              <quality>3.0686531681567430e-03</quality>
              <le>1.6250599920749664e-01</le></_></splits></_>
        <_>
          <depth>1</depth>
          <value>-5.8831026643066185e-02</value></_>
        <_>
          <depth>1</depth>
          <value>5.2268166024024953e-02</value></_></nodes></_>
    <_>
      <nodes>
        <_>
          <depth>0</depth>
          <value>-8.5048856918348119e-10</value>
          <splits>
            <_><var>3</var>
              <quality>2.8447066433727741e-03</quality>
              <le>1.4545650221407413e-02</le></_></splits></_>
        <_>
          <depth>1</depth>
          <value>-3.5640521948049557e-02</value></_>
        <_>
          <depth>1</depth>
          <value>8.0020796292004842e-02</value></_></nodes></_>
    <_>
      <nodes>
        <_>
          <depth>0</depth>
          <value>1.6963466158516025e-09</value>
          <splits>
            <_><var>1</var>
              <quality>3.0715053435415030e-03</quality>
              <le>7.5000000000000000e+00</le></_></splits></_>
        <_>
          <depth>1</depth>
          <value>5.5149070296255362e-02</value></_>
        <_>
          <depth>1</depth>
          <value>-5.5808918284962636e-02</value></_></nodes></_>
    <_>
      <nodes>
        <_>
          <depth>0</depth>
          <value>-1.1067868855889188e-09</value>
          <splits>
            <_><var>14</var>
              <quality>2.6319455355405807e-03</quality>
              <le>-7.0000047683715820e+00</le></_></splits></_>
        <_>
          <depth>1</depth>
          <value>8.5549349786827233e-01</value></_>
        <_>
          <depth>1</depth>
          <value>-3.7928386949070705e-03</value></_></nodes></_>
    <_>
      <nodes>
        <_>
          <depth>0</depth>
          <value>1.1133538535422039e-11</value>
          <splits>
            <_><var>9</var>
              <quality>2.0080616232007742e-03</quality>
              <le>2.4147299118340015e-03</le></_></splits></_>
        <_>
          <depth>1</depth>
          <value>5.7564577324623896e+00</value></_>
        <_>
          <depth>1</depth>
          <value>-2.0080644261648039e-03</value></_></nodes></_>
    <_>
      <nodes>
        <_>
          <depth>0</depth>
          <value>6.3500435814806283e-06</value>
          <splits>
            <_><var>11</var>
              <quality>1.9409789238125086e-03</quality>
              <le>5.0986450910568237e-01</le></_></splits></_>
        <_>
          <depth>1</depth>
          <value>2.1953818036509029e-03</value></_>
        <_>
          <depth>1</depth>
          <value>-1.4061735326986606e+00</value></_></nodes></_>
    <_>
      <nodes>
        <_>
          <depth>0</depth>
          <value>7.3087758062571639e-11</value>
          <splits>
            <_><var>9</var>
              <quality>1.7449611332267523e-03</quality>
              <le>2.4164351634681225e-03</le></_></splits></_>
        <_>
          <depth>1</depth>
          <value>-2.5383241544776776e+00</value></_>
        <_>
          <depth>1</depth>
          <value>1.7668797569127075e-03</value></_></nodes></_>
    <_>
      <nodes>
        <_>
          <depth>0</depth>
          <value>-6.3246297092426308e-11</value>
          <splits>
            <_><var>11</var>
              <quality>1.6801465535536408e-03</quality>
              <le>4.9627348780632019e-01</le></_></splits></_>
        <_>
          <depth>1</depth>
          <value>-9.3231777481302524e-03</value></_>
        <_>
          <depth>1</depth>
          <value>1.8220698180547018e-01</value></_></nodes></_>
    <_>
      <nodes>
        <_>
          <depth>0</depth>
          <value>-2.1055224235225872e-10</value>
          <splits>
            <_><var>11</var>
              <quality>1.8942760070785880e-03</quality>
              <le>4.9160850048065186e-01</le></_></splits></_>
        <_>
          <depth>1</depth>
          <value>1.8783282554929233e-02</value></_>
        <_>
          <depth>1</depth>
          <value>-1.0120501896331842e-01</value></_></nodes></_>
    <_>
      <nodes>
        <_>
          <depth>0</depth>
          <value>3.9673375680030350e-10</value>
          <splits>
            <_><var>5</var>
              <quality>2.2008700761944056e-03</quality>
              <le>6.4464150927960873e-03</le></_></splits></_>
        <_>
          <depth>1</depth>
          <value>1.3264973585274450e-01</value></_>
        <_>
          <depth>1</depth>
          <value>-1.6690340538669642e-02</value></_></nodes></_>
    <_>
      <nodes>
        <_>
          <depth>0</depth>
          <value>-4.3588688233412935e-10</value>
          <splits>
            <_><var>13</var>
              <quality>2.2461770568042994e-03</quality>
              <le>4.9768798053264618e-03</le></_></splits></_>
        <_>
          <depth>1</depth>
          <value>-8.0796373634423893e-02</value></_>
        <_>
          <depth>1</depth>
          <value>2.7868148894966534e-02</value></_></nodes></_>
    <_>
      <nodes>
        <_>
          <depth>0</depth>
          <value>-1.0140149831945493e-10</value>
          <splits>
            <_><var>6</var>
              <quality>2.8177979402244091e-03</quality>
              <le>3.0438351631164551e-01</le></_></splits></_>
        <_>
          <depth>1</depth>
          <value>-4.9219085884856954e-02</value></_>
        <_>
          <depth>1</depth>
          <value>5.7359154108068702e-02</value></_></nodes></_>
    <_>
      <nodes>
        <_>
          <depth>0</depth>
          <value>-6.0988936127326768e-11</value>
          <splits>
            <_><var>16</var>
              <quality>2.4239162448793650e-03</quality>
              <le>2.5529399871826172e+01</le></_></splits></_>
        <_>
          <depth>1</depth>
          <value>-3.1520754305370713e-02</value></_>
        <_>
          <depth>1</depth>
          <value>7.7076793749067701e-02</value></_></nodes></_>
    <_>
      <nodes>
        <_>
          <depth>0</depth>
          <value>1.5271606199517643e-10</value>
          <splits>
            <_><var>10</var>
              <quality>1.5928128268569708e-03</quality>
              <le>3.9123650640249252e-04</le></_></splits></_>
        <_>
          <depth>1</depth>
          <value>-3.4266673446233747e-01</value></_>
        <_>
          <depth>1</depth>
          <value>4.8288492745701050e-03</value></_></nodes></_>
    <_>
      <nodes>
        <_>
          <depth>0</depth>
          <value>8.0148332408895845e-11</value>
          <splits>
            <_><var>10</var>
              <quality>1.4217646094039083e-03</quality>
              <le>1.1612899601459503e-02</le></_></splits></_>
        <_>
          <depth>1</depth>
          <value>2.0825771528942102e-01</value></_>
        <_>
          <depth>1</depth>
          <value>-6.9254723273196551e-03</value></_></nodes></_>
    <_>
      <nodes>
        <_>
          <depth>0</depth>
          <value>4.3643755274529826e-11</value>
          <splits>
            <_><var>5</var>
              <quality>1.5078453579917550e-03</quality>
              <le>9.8131597042083740e-01</le></_></splits></_>
        <_>
          <depth>1</depth>
          <value>1.2634869865874475e-02</value></_>
        <_>
          <depth>1</depth>
          <value>-1.1991787938532317e-01</value></_></nodes></_>
    <_>
      <nodes>
        <_>
          <depth>0</depth>
          <value>-4.3186842992515225e-11</value>
          <splits>
            <_><var>6</var>
              <quality>1.6460479237139225e-03</quality>
              <le>2.8731949627399445e-02</le></_></splits></_>
        <_>
          <depth>1</depth>
          <value>7.7104131969500847e-02</value></_>
        <_>
          <depth>1</depth>
          <value>-2.1393928080529093e-02</value></_></nodes></_>
    <_>
      <nodes>
        <_>
          <depth>0</depth>
          <value>1.1335417036602568e-09</value>
          <splits>
            <_><var>0</var>
              <quality>2.1191374398767948e-03</quality>
              <le>2.0500000000000000e+01</le></_></splits></_>
        <_>
          <depth>1</depth>
          <value>3.9448349214763194e-02</value></_>
        <_>
          <depth>1</depth>
          <value>-5.3799002537828877e-02</value></_></nodes></_>
    <_>
      <nodes>
        <_>
          <depth>0</depth>
          <value>-4.8967430134713771e-10</value>
          <splits>
            <_><var>17</var>
              <quality>1.8995644059032202e-03</quality>
              <le>1.1093599796295166e+00</le></_></splits></_>
        <_>
          <depth>1</depth>
          <value>-9.4366066901180087e-02</value></_>
        <_>
          <depth>1</depth>
          <value>2.0192199155435249e-02</value></_></nodes></_>
    <_>
      <nodes>
        <_>
          <depth>0</depth>
          <value>4.4592307604329105e-10</value>
          <splits>
            <_><var>16</var>
              <quality>1.5319326194003224e-03</quality>
              <le>1.6659750044345856e-01</le></_></splits></_>
        <_>
          <depth>1</depth>
          <value>2.3570685433259322e-01</value></_>
        <_>
          <depth>1</depth>
          <value>-6.6193279095974108e-03</value></_></nodes></_>
    <_>
      <nodes>
        <_>
          <depth>0</depth>
          <value>-1.0892170500063757e-10</value>
          <splits>
            <_><var>5</var>
              <quality>1.4729823451489210e-03</quality>
              <le>2.3952098563313484e-03</le></_></splits></_>
        <_>
          <depth>1</depth>
          <value>-2.2180712603192648e-01</value></_>
        <_>
          <depth>1</depth>
          <value>6.7494782556271104e-03</value></_></nodes></_>
    <_>
      <nodes>
        <_>
          <depth>0</depth>
          <value>-2.7194024810513025e-11</value>
          <splits>
            <_><var>5</var>
              <quality>1.9123282982036471e-03</quality>
              <le>3.5149499308317900e-03</le></_></splits></_>
        <_>
          <depth>1</depth>
          <value>1.8385470465413017e-01</value></_>
        <_>
          <depth>1</depth>
          <value>-1.0518623728088252e-02</value></_></nodes></_>
    <_>
      <nodes>
        <_>
          <depth>0</depth>
          <value>9.6414431984411955e-11</value>
          <splits>
            <_><var>5</var>
              <quality>2.0814847666770220e-03</quality>
              <le>6.1760200187563896e-03</le></_></splits></_>
        <_>
          <depth>1</depth>
          <value>-1.4272109703664709e-01</value></_>
        <_>
          <depth>1</depth>
          <value>1.4684227870132344e-02</value></_></nodes></_>
    <_>
      <nodes>
        <_>
          <depth>0</depth>
          <value>1.0513234726122146e-10</value>
          <splits>
            <_><var>5</var>
              <quality>1.9681353587657213e-03</quality>
              <le>6.4464150927960873e-03</le></_></splits></_>
        <_>
          <depth>1</depth>
          <value>1.2685749856678352e-01</value></_>
        <_>
          <depth>1</depth>
          <value>-1.5598937096885470e-02</value></_></nodes></_>
    <_>
      <nodes>
        <_>
          <depth>0</depth>
          <value>-7.6243983407176149e-10</value>
          <splits>
            <_><var>5</var>
              <quality>1.6525677638128400e-03</quality>
              <le>6.2407897785305977e-03</le></_></splits></_>
        <_>
          <depth>1</depth>
          <value>-1.2681526374034191e-01</value></_>
        <_>
          <depth>1</depth>
          <value>1.3101830877287344e-02</value></_></nodes></_>
    <_>
      <nodes>
        <_>
          <depth>0</depth>
          <value>-5.8260263314316728e-10</value>
          <splits>
            <_><var>5</var>
              <quality>1.4301843475550413e-03</quality>
              <le>6.4641353674232960e-04</le></_></splits></_>
        <_>
          <depth>1</depth>
          <value>1.6522236300327069e+00</value></_>
        <_>
          <depth>1</depth>
          <value>-1.5392212125753431e-03</value></_></nodes></_>
    <_>
      <nodes>
        <_>
          <depth>0</depth>
          <value>7.9715123384756360e-11</value>
          <splits>
            <_><var>9</var>
              <quality>1.2951779644936323e-03</quality>
              <le>4.5197801664471626e-03</le></_></splits></_>
        <_>
          <depth>1</depth>
          <value>2.3449419872654526e-01</value></_>
        <_>
          <depth>1</depth>
          <value>-5.6242109751228888e-03</value></_></nodes></_>
    <_>
      <nodes>
        <_>
          <depth>0</depth>
          <value>5.4562576676041019e-11</value>
          <splits>
            <_><var>5</var>
              <quality>1.6161666717380285e-03</quality>
              <le>7.6746148988604546e-04</le></_></splits></_>
        <_>
          <depth>1</depth>
          <value>-8.8100268555832062e-01</value></_>
        <_>
          <depth>1</depth>
          <value>2.2862086721452623e-03</value></_></nodes></_>
    <_>
      <nodes>
        <_>
          <depth>0</depth>
          <value>6.3206995189359360e-11</value>
          <splits>
            <_><var>15</var>
              <quality>1.2892949162051082e-03</quality>
              <le>2.1085649490356445e+01</le></_></splits></_>
        <_>
          <depth>1</depth>
          <value>-2.4803757142395559e-03</value></_>
        <_>
          <depth>1</depth>
          <value>5.7606472427807753e-01</value></_></nodes></_>
    <_>
      <nodes>
        <_>
          <depth>0</depth>
          <value>1.7355072931309940e-10</value>
          <splits>
            <_><var>14</var>
              <quality>1.2310025049373507e-03</quality>
              <le>1.8550950288772583e+00</le></_></splits></_>
        <_>
          <depth>1</depth>
          <value>-1.3351589364271989e-03</value></_>
        <_>
          <depth>1</depth>
          <value>1.6021393578836007e+00</value></_></nodes></_>
    <_>
      <nodes>
        <_>
          <depth>0</depth>
          <value>9.8676622427710199e-12</value>
          <splits>
            <_><var>13</var>
              <quality>1.4575887471437454e-03</quality>
              <le>2.3026800155639648e+00</le></_></splits></_>
        <_>
          <depth>1</depth>
          <value>3.8152727163026801e-03</value></_>
        <_>
          <depth>1</depth>
          <value>-4.0244886930442936e-01</value></_></nodes></_>
    <_>
      <nodes>
        <_>
          <depth>0</depth>
          <value>-1.6508577840806683e-10</value>
          <splits>
            <_><var>13</var>
              <quality>1.6266306629404426e-03</quality>
              <le>1.4721350669860840e+00</le></_></splits></_>
        <_>
          <depth>1</depth>
          <value>-8.9231758451586811e-03</value></_>
        <_>
          <depth>1</depth>
          <value>1.8435828410096841e-01</value></_></nodes></_>
    <_>
      <nodes>
        <_>
          <depth>0</depth>
          <value>-8.5675022639243837e-11</value>
          <splits>
            <_><var>13</var>
              <quality>1.7864223336800933e-03</quality>
              <le>7.5753402709960938e-01</le></_></splits></_>
        <_>
          <depth>1</depth>
          <value>2.1515974077069892e-02</value></_>
        <_>
          <depth>1</depth>
          <value>-8.3232205656679104e-02</value></_></nodes></_>
    <_>
      <nodes>
        <_>
          <depth>0</depth>
          <value>1.4927103995080493e-10</value>
          <splits>
            <_><var>14</var>
              <quality>1.3930079294368625e-03</quality>
              <le>2.8621700406074524e-01</le></_></splits></_>
        <_>
          <depth>1</depth>
          <value>-2.5285156679573657e-02</value></_>
        <_>
          <depth>1</depth>
          <value>5.5159537412818087e-02</value></_></nodes></_>
    <_>
      <nodes>
        <_>
          <depth>0</depth>
          <value>-6.5553923443658391e-10</value>
          <splits>
            <_><var>17</var>
              <quality>1.4025820419192314e-03</quality>
              <le>3.6935050964355469e+01</le></_></splits></_>
        <_>
          <depth>1</depth>
          <value>1.2387621270795433e-02</value></_>
        <_>
          <depth>1</depth>
          <value>-1.1371794071145222e-01</value></_></nodes></_>
    <_>
      <nodes>
        <_>
          <depth>0</depth>
          <value>3.1552005442839840e-10</value>
          <splits>
            <_><var>5</var>
              <quality>1.2164876097813249e-03</quality>
              <le>1.2928249780088663e-03</le></_></splits></_>
        <_>
          <depth>1</depth>
          <value>4.6370440543583302e-01</value></_>
        <_>
          <depth>1</depth>
          <value>-2.8088076367338310e-03</value></_></nodes></_>
    <_>
      <nodes>
        <_>
          <depth>0</depth>
          <value>3.3670843890718374e-12</value>
          <splits>
            <_><var>2</var>
              <quality>1.2170365080237389e-03</quality>
              <le>510.</le></_></splits></_>
        <_>
          <depth>1</depth>
          <value>-1.2170370859044687e-03</value></_>
        <_>
          <depth>1</depth>
          <value>5.7564577324623896e+00</value></_></nodes></_>
    <_>
      <nodes>
        <_>
          <depth>0</depth>
          <value>3.8486185909556189e-06</value>
          <splits>
            <_><var>6</var>
              <quality>1.1652488028630614e-03</quality>
              <le>1.6090150456875563e-03</le></_></splits></_>
        <_>
          <depth>1</depth>
          <value>2.6990018798789772e-01</value></_>
        <_>
          <depth>1</depth>
          <value>-4.4179049254295787e-03</value></_></nodes></_>
    <_>
      <nodes>
        <_>
          <depth>0</depth>
          <value>-4.5416947982277370e-11</value>
          <splits>
            <_><var>5</var>
              <quality>1.5558786690235138e-03</quality>
              <le>9.9792397022247314e-01</le></_></splits></_>
        <_>
          <depth>1</depth>
          <value>3.7213785475412623e-03</value></_>
        <_>
          <depth>1</depth>
          <value>-4.4537997333461510e-01</value></_></nodes></_>
    <_>
      <nodes>
        <_>
          <depth>0</depth>
          <value>2.9496627361976032e-11</value>
          <splits>
            <_><var>14</var>
              <quality>1.1524271685630083e-03</quality>
              <le>-9.9749755859375000e+00</le></_></splits></_>
        <_>
          <depth>1</depth>
          <value>5.7564577324623896e+00</value></_>
        <_>
          <depth>1</depth>
          <value>-1.1524276190101868e-03</value></_></nodes></_>
    <_>
      <nodes>
        <_>
          <depth>0</depth>
          <value>3.6443168002987828e-06</value>
          <splits>
            <_><var>9</var>
              <quality>1.0873551946133375e-03</quality>
              <le>4.1858498007059097e-03</le></_></splits></_>
        <_>
          <depth>1</depth>
          <value>-2.8852112456496032e-01</value></_>
        <_>
          <depth>1</depth>
          <value>3.8763321934593884e-03</value></_></nodes></_>
    <_>
      <nodes>
        <_>
          <depth>0</depth>
          <value>-1.7716311754098012e-10</value>
          <splits>
            <_><var>12</var>
              <quality>1.2609179830178618e-03</quality>
              <le>9.6972954273223877e-01</le></_></splits></_>
        <_>
          <depth>1</depth>
          <value>-2.4968260132316653e-02</value></_>
        <_>
          <depth>1</depth>
          <value>5.0554351626841104e-02</value></_></nodes></_>
    <_>
      <nodes>
        <_>
          <depth>0</depth>
          <value>1.0449439080867339e-09</value>
          <splits>
            <_><var>11</var>
              <quality>1.4611725928261876e-03</quality>
              <le>2.3859900236129761e-01</le></_></splits></_>
        <_>
          <depth>1</depth>
          <value>6.4370762952420502e-02</value></_>
        <_>
          <depth>1</depth>
          <value>-2.2734578821220666e-02</value></_></nodes></_>
    <_>
      <nodes>
        <_>
          <depth>0</depth>
          <value>-9.5901886524130955e-10</value>
          <splits>
            <_><var>4</var>
              <quality>1.6663920832797885e-03</quality>
              <le>6.6088652610778809e-01</le></_></splits></_>
        <_>
          <depth>1</depth>
          <value>1.7446771065665390e-02</value></_>
        <_>
          <depth>1</depth>
          <value>-9.5814741751197530e-02</value></_></nodes></_>
    <_>
      <nodes>
        <_>
          <depth>0</depth>
          <value>-1.0686895813881392e-10</value>
          <splits>
            <_><var>7</var>
              <quality>1.4589639613404870e-03</quality>
              <le>3.4806448966264725e-02</le></_></splits></_>
        <_>
          <depth>1</depth>
          <value>6.4992744266455918e-02</value></_>
        <_>
          <depth>1</depth>
          <value>-2.2483491716207608e-02</value></_></nodes></_>
    <_>
      <nodes>
        <_>
          <depth>0</depth>
          <value>1.3149297189347865e-09</value>
          <splits>
            <_><var>5</var>
              <quality>1.4572417130693793e-03</quality>
              <le>8.1646752357482910e-01</le></_></splits></_>
        <_>
          <depth>1</depth>
          <value>2.9750268579726628e-02</value></_>
        <_>
          <depth>1</depth>
          <value>-4.9036188100826439e-02</value></_></nodes></_>
    <_>
      <nodes>
        <_>
          <depth>0</depth>
          <value>4.8113069061216964e-10</value>
          <splits>
            <_><var>10</var>
              <quality>1.4232606627047062e-03</quality>
              <le>4.3728750944137573e-01</le></_></splits></_>
        <_>
          <depth>1</depth>
          <value>4.2627605235779832e-02</value></_>
        <_>
          <depth>1</depth>
          <value>-3.3420896825133453e-02</value></_></nodes></_>
    <_>
      <nodes>
        <_>
          <depth>0</depth>
          <value>9.6420871277953540e-11</value>
          <splits>
            <_><var>14</var>
              <quality>1.1601231526583433e-03</quality>
              <le>7.9691803455352783e-01</le></_></splits></_>
        <_>
          <depth>1</depth>
          <value>8.0176618857980188e-03</value></_>
        <_>
          <depth>1</depth>
          <value>-1.4572182357126093e-01</value></_></nodes></_>
    <_>
      <nodes>
        <_>
          <depth>0</depth>
          <value>-1.2148732021854279e-10</value>
          <splits>
            <_><var>13</var>
              <quality>9.8649994470179081e-04</quality>
              <le>1.3116500377655029e+00</le></_></splits></_>
        <_>
          <depth>1</depth>
          <value>-8.3707780037779352e-03</value></_>
        <_>
          <depth>1</depth>
          <value>1.1840342590587405e-01</value></_></nodes></_>
    <_>
      <nodes>
        <_>
          <depth>0</depth>
          <value>-4.7657322555469215e-10</value>
          <splits>
            <_><var>8</var>
              <quality>1.1555239325389266e-03</quality>
              <le>9.7245901823043823e-01</le></_></splits></_>
        <_>
          <depth>1</depth>
          <value>-2.3885138605188264e-02</value></_>
        <_>
          <depth>1</depth>
          <value>4.8425382204714609e-02</value></_></nodes></_>
    <_>
      <nodes>
        <_>
          <depth>0</depth>
          <value>-7.3096956319104124e-10</value>
          <splits>
            <_><var>14</var>
              <quality>1.2444689637050033e-03</quality>
              <le>1.7713803390506655e-04</le></_></splits></_>
        <_>
          <depth>1</depth>
          <value>-6.5040374475495322e-02</value></_>
        <_>
          <depth>1</depth>
          <value>1.9163108152148823e-02</value></_></nodes></_>
    <_>
      <nodes>
        <_>
          <depth>0</depth>
          <value>1.2037482122050897e-11</value>
          <splits>
            <_><var>2</var>
              <quality>1.1357305338606238e-03</quality>
              <le>3.2500000000000000e+01</le></_></splits></_>
        <_>
          <depth>1</depth>
          <value>9.0746113882353447e-03</value></_>
        <_>
          <depth>1</depth>
          <value>-1.2581789885286218e-01</value></_></nodes></_>
    <_>
      <nodes>
        <_>
          <depth>0</depth>
          <value>-4.5044878958262453e-10</value>
          <splits>
            <_><var>3</var>
              <quality>1.3556737685576081e-03</quality>
              <le>1.0811150074005127e-02</le></_></splits></_>
        <_>
          <depth>1</depth>
          <value>-2.4693586673729971e-02</value></_>
        <_>
          <depth>1</depth>
          <value>5.4966281421472286e-02</value></_></nodes></_>
    <_>
      <nodes>
        <_>
          <depth>0</depth>
          <value>-7.2179795526013736e-10</value>
          <splits>
            <_><var>5</var>
              <quality>1.3541989028453827e-03</quality>
              <le>2.3132550716400146e-01</le></_></splits></_>
        <_>
          <depth>1</depth>
          <value>4.3118073706183264e-02</value></_>
        <_>
          <depth>1</depth>
          <value>-3.1436569832415107e-02</value></_></nodes></_>
    <_>
      <nodes>
        <_>
          <depth>0</depth>
          <value>-2.5959850942303216e-10</value>
          <splits>
            <_><var>7</var>
              <quality>1.3516756007447839e-03</quality>
              <le>4.9441850185394287e-01</le></_></splits></_>
        <_>
          <depth>1</depth>
          <value>1.6212939320761326e-02</value></_>
        <_>
          <depth>1</depth>
          <value>-8.3571497485798243e-02</value></_></nodes></_>
    <_>
      <nodes>
        <_>
          <depth>0</depth>
          <value>-1.6718515463717932e-10</value>
          <splits>
            <_><var>5</var>
              <quality>1.1431571329012513e-03</quality>
              <le>6.4464150927960873e-03</le></_></splits></_>
        <_>
          <depth>1</depth>
          <value>9.7987447232632946e-02</value></_>
        <_>
          <depth>1</depth>
          <value>-1.1704211802802225e-02</value></_></nodes></_>
    <_>
      <nodes>
        <_>
          <depth>0</depth>
          <value>-1.4008016970565233e-10</value>
          <splits>
            <_><var>5</var>
              <quality>1.3583510881289840e-03</quality>
              <le>3.0684249941259623e-03</le></_></splits></_>
        <_>
          <depth>1</depth>
          <value>-1.8805402414012090e-01</value></_>
        <_>
          <depth>1</depth>
          <value>7.3082740150196947e-03</value></_></nodes></_>
    <_>
      <nodes>
        <_>
          <depth>0</depth>
          <value>1.2539302929169134e-11</value>
          <splits>
            <_><var>5</var>
              <quality>1.2667219853028655e-03</quality>
              <le>3.5149499308317900e-03</le></_></splits></_>
        <_>
          <depth>1</depth>
          <value>1.5333490739104141e-01</value></_>
        <_>
          <depth>1</depth>
          <value>-8.3259811206578722e-03</value></_></nodes></_>
    <_>
      <nodes>
        <_>
          <depth>0</depth>
          <value>2.0440427124498110e-10</value>
          <splits>
            <_><var>5</var>
              <quality>1.4639326836913824e-03</quality>
              <le>6.0277301818132401e-03</le></_></splits></_>
        <_>
          <depth>1</depth>
          <value>-1.2184894210432656e-01</value></_>
        <_>
          <depth>1</depth>
          <value>1.2074312032490101e-02</value></_></nodes></_>
    <_>
      <nodes>
        <_>
          <depth>0</depth>
          <value>-2.6094987288930936e-10</value>
          <splits>
            <_><var>7</var>
              <quality>1.1822130763903260e-03</quality>
              <le>4.9683851003646851e-01</le></_></splits></_>
        <_>
          <depth>1</depth>
          <value>-1.1439551518764978e-02</value></_>
        <_>
          <depth>1</depth>
          <value>1.0371920006292284e-01</value></_></nodes></_>
    <_>
      <nodes>
        <_>
          <depth>0</depth>
          <value>3.5515035344423419e-10</value>
          <splits>
            <_><var>0</var>
              <quality>1.0353231336921453e-03</quality>
              <le>1.1650000000000000e+02</le></_></splits></_>
        <_>
          <depth>1</depth>
          <value>-1.5484209728351926e-02</value></_>
        <_>
          <depth>1</depth>
          <value>6.6968428427956694e-02</value></_></nodes></_>
    <_>
      <nodes>
        <_>
          <depth>0</depth>
          <value>7.4029116115690021e-10</value>
          <splits>
            <_><var>4</var>
              <quality>1.1692490661516786e-03</quality>
              <le>9.5666146278381348e-01</le></_></splits></_>
        <_>
          <depth>1</depth>
          <value>5.3385142828678020e-03</value></_>
        <_>
          <depth>1</depth>
          <value>-2.2263021506086014e-01</value></_></nodes></_>
    <_>
      <nodes>
        <_>
          <depth>0</depth>
          <value>1.1846701396240767e-10</value>
          <splits>
            <_><var>15</var>
              <quality>9.1359548969194293e-04</quality>
              <le>1.2402650833129883e+01</le></_></splits></_>
        <_>
          <depth>1</depth>
          <value>-7.5100492232426886e-03</value></_>
        <_>
          <depth>1</depth>
          <value>1.2225752508824819e-01</value></_></nodes></_>
    <_>
      <nodes>
        <_>
          <depth>0</depth>
          <value>1.4955192637595116e-10</value>
          <splits>
            <_><var>6</var>
              <quality>1.0000541806221008e-03</quality>
              <le>5.6457351893186569e-03</le></_></splits></_>
        <_>
          <depth>1</depth>
          <value>-1.1369797153376997e-01</value></_>
        <_>
          <depth>1</depth>
          <value>8.8338070918321330e-03</value></_></nodes></_>
    <_>
      <nodes>
        <_>
          <depth>0</depth>
          <value>-1.0310574617375431e-10</value>
          <splits>
            <_><var>5</var>
              <quality>1.2106609065085649e-03</quality>
              <le>9.9841898679733276e-01</le></_></splits></_>
        <_>
          <depth>1</depth>
          <value>-2.5303238374843168e-03</value></_>
        <_>
          <depth>1</depth>
          <value>5.2098760881570783e-01</value></_></nodes></_>
    <_>
      <nodes>
        <_>
          <depth>0</depth>
          <value>-1.2763123892719774e-10</value>
          <splits>
            <_><var>15</var>
              <quality>8.8877469534054399e-04</quality>
              <le>1.6319600399583578e-03</le></_></splits></_>
        <_>
          <depth>1</depth>
          <value>-4.8701822290892904e-01</value></_>
        <_>
          <depth>1</depth>
          <value>1.9669855542459721e-03</value></_></nodes></_>
    <_>
      <nodes>
        <_>
          <depth>0</depth>
          <value>-6.8395900059374316e-11</value>
          <splits>
            <_><var>9</var>
              <quality>8.2400068640708923e-04</quality>
              <le>3.7418198771774769e-03</le></_></splits></_>
        <_>
          <depth>1</depth>
          <value>3.5235495009217044e-01</value></_>
        <_>
          <depth>1</depth>
          <value>-2.4345463730747856e-03</value></_></nodes></_>
    <_>
      <nodes>
        <_>
          <depth>0</depth>
          <value>3.0329960764209818e-11</value>
          <splits>
            <_><var>5</var>
              <quality>1.0929777054116130e-03</quality>
              <le>3.1307050958275795e-03</le></_></splits></_>
        <_>
          <depth>1</depth>
          <value>-1.6663120048162025e-01</value></_>
        <_>
          <depth>1</depth>
          <value>6.6199547760688211e-03</value></_></nodes></_>
    <_>
      <nodes>
        <_>
          <depth>0</depth>
          <value>7.8212991632675756e-11</value>
          <splits>
            <_><var>5</var>
              <quality>8.9919485617429018e-04</quality>
              <le>3.5149499308317900e-03</le></_></splits></_>
        <_>
          <depth>1</depth>
          <value>1.3019603156183501e-01</value></_>
        <_>
          <depth>1</depth>
          <value>-6.9455605530611229e-03</value></_></nodes></_>
    <_>
      <nodes>
        <_>
          <depth>0</depth>
          <value>-4.2498393694886178e-11</value>
          <splits>
            <_><var>9</var>
              <quality>9.6465676324442029e-04</quality>
              <le>3.3250250853598118e-03</le></_></splits></_>
        <_>
          <depth>1</depth>
          <value>-5.9656901222163494e-01</value></_>
        <_>
          <depth>1</depth>
          <value>1.8044353968257750e-03</value></_></nodes></_>
    <_>
      <nodes>
        <_>
          <depth>0</depth>
          <value>-2.6013358134912582e-11</value>
          <splits>
            <_><var>2</var>
              <quality>7.8595487866550684e-04</quality>
              <le>1.8250000000000000e+02</le></_></splits></_>
        <_>
          <depth>1</depth>
          <value>3.0635582102703264e-03</value></_>
        <_>
          <depth>1</depth>
          <value>-2.6241232618674909e-01</value></_></nodes></_>
    <_>
      <nodes>
        <_>
          <depth>0</depth>
          <value>2.2556712048668148e-10</value>
          <splits>
            <_><var>9</var>
              <quality>7.5485510751605034e-04</quality>
              <le>3.5056998021900654e-03</le></_></splits></_>
        <_>
          <depth>1</depth>
          <value>4.1925125615173814e-01</value></_>
        <_>
          <depth>1</depth>
          <value>-1.9047614352071130e-03</value></_></nodes></_>
    <_>
      <nodes>
        <_>
          <depth>0</depth>
          <value>-4.7199189003873202e-11</value>
          <splits>
            <_><var>7</var>
              <quality>9.8076357971876860e-04</quality>
              <le>4.9724650382995605e-01</le></_></splits></_>
        <_>
          <depth>1</depth>
          <value>9.3326666181811051e-03</value></_>
        <_>
          <depth>1</depth>
          <value>-1.0548184327828684e-01</value></_></nodes></_>
    <_>
      <nodes>
        <_>
          <depth>0</depth>
          <value>1.9698553895280867e-10</value>
          <splits>
            <_><var>11</var>
              <quality>8.3853898104280233e-04</quality>
              <le>4.6158549189567566e-01</le></_></splits></_>
        <_>
          <depth>1</depth>
          <value>-2.3184893699057924e-02</value></_>
        <_>
          <depth>1</depth>
          <value>3.6189743094082925e-02</value></_></nodes></_>
    <_>
      <nodes>
        <_>
          <depth>0</depth>
          <value>2.4811597215074234e-10</value>
          <splits>
            <_><var>6</var>
              <quality>1.1531728086993098e-03</quality>
              <le>5.0326451659202576e-02</le></_></splits></_>
        <_>
          <depth>1</depth>
          <value>5.3519460668220907e-02</value></_>
        <_>
          <depth>1</depth>
          <value>-2.1570708502296650e-02</value></_></nodes></_>
    <_>
      <nodes>
        <_>
          <depth>0</depth>
          <value>-1.1098610920423080e-10</value>
          <splits>
            <_><var>5</var>
              <quality>1.1151583166792989e-03</quality>
              <le>8.5744702816009521e-01</le></_></splits></_>
        <_>
          <depth>1</depth>
          <value>2.3856248455359125e-02</value></_>
        <_>
          <depth>1</depth>
          <value>-4.6787892913274801e-02</value></_></nodes></_>
    <_>
      <nodes>
        <_>
          <depth>0</depth>
          <value>-6.3111627075369959e-10</value>
          <splits>
            <_><var>11</var>
              <quality>1.1722734197974205e-03</quality>
              <le>4.9165898561477661e-01</le></_></splits></_>
        <_>
          <depth>1</depth>
          <value>1.4667771811353104e-02</value></_>
        <_>
          <depth>1</depth>
          <value>-8.0098296386976992e-02</value></_></nodes></_>
    <_>
      <nodes>
        <_>
          <depth>0</depth>
          <value>-3.6591840682010164e-10</value>
          <splits>
            <_><var>7</var>
              <quality>9.3070627190172672e-04</quality>
              <le>4.9823451042175293e-01</le></_></splits></_>
        <_>
          <depth>1</depth>
          <value>-6.3871861341174355e-03</value></_>
        <_>
          <depth>1</depth>
          <value>1.4676127891495633e-01</value></_></nodes></_>
    <_>
      <nodes>
        <_>
          <depth>0</depth>
          <value>-8.3070939023394874e-11</value>
          <splits>
            <_><var>7</var>
              <quality>1.0119938524439931e-03</quality>
              <le>4.9846398830413818e-01</le></_></splits></_>
        <_>
          <depth>1</depth>
          <value>5.7204406446300518e-03</value></_>
        <_>
          <depth>1</depth>
          <value>-1.7879134619596868e-01</value></_></nodes></_>
    <_>
      <nodes>
        <_>
          <depth>0</depth>
          <value>-1.7830764645747304e-10</value>
          <splits>
            <_><var>7</var>
              <quality>7.6425849692896008e-04</quality>
              <le>4.9823451042175293e-01</le></_></splits></_>
        <_>
          <depth>1</depth>
          <value>-5.7204406614480997e-03</value></_>
        <_>
          <depth>1</depth>
          <value>1.3440633903427962e-01</value></_></nodes></_>
    <_>
      <nodes>
        <_>
          <depth>0</depth>
          <value>-6.7192862389727374e-11</value>
          <splits>
            <_><var>12</var>
              <quality>7.8335765283554792e-04</quality>
              <le>1.6635949909687042e-01</le></_></splits></_>
        <_>
          <depth>1</depth>
          <value>9.8880563801225882e-02</value></_>
        <_>
          <depth>1</depth>
          <value>-7.9482312250173676e-03</value></_></nodes></_>
    <_>
      <nodes>
        <_>
          <depth>0</depth>
          <value>-4.6487619331198546e-10</value>
          <splits>
            <_><var>0</var>
              <quality>7.1648089215159416e-04</quality>
              <le>3.2325000000000000e+03</le></_></splits></_>
        <_>
          <depth>1</depth>
          <value>-7.1648150699965150e-04</value></_>
        <_>
          <depth>1</depth>
          <value>5.7564577324623896e+00</value></_></nodes></_>
    <_>
      <nodes>
        <_>
          <depth>0</depth>
          <value>2.2657436877373510e-06</value>
          <splits>
            <_><var>5</var>
              <quality>7.3800625978037715e-04</quality>
              <le>9.9799799919128418e-01</le></_></splits></_>
        <_>
          <depth>1</depth>
          <value>2.3280018456505957e-03</value></_>
        <_>
          <depth>1</depth>
          <value>-3.2866407620300214e-01</value></_></nodes></_>
    <_>
      <nodes>
        <_>
          <depth>0</depth>
          <value>-1.2951439922205117e-10</value>
          <splits>
            <_><var>14</var>
              <quality>7.0717919152230024e-04</quality>
              <le>1.7995150089263916e+00</le></_></splits></_>
        <_>
          <depth>1</depth>
          <value>1.3079451622031932e-03</value></_>
        <_>
          <depth>1</depth>
          <value>-6.0511572373662581e-01</value></_></nodes></_>
    <_>
      <nodes>
        <_>
          <depth>0</depth>
          <value>2.1202373190026924e-11</value>
          <splits>
            <_><var>10</var>
              <quality>6.0010800370946527e-04</quality>
              <le>4.9993249773979187e-01</le></_></splits></_>
        <_>
          <depth>1</depth>
          <value>1.2397697158361816e-02</value></_>
        <_>
          <depth>1</depth>
          <value>-4.8445139317936349e-02</value></_></nodes></_>
    <_>
      <nodes>
        <_>
          <depth>0</depth>
          <value>-7.7935824466769345e-11</value>
          <splits>
            <_><var>10</var>
              <quality>1.2651294237002730e-03</quality>
              <le>4.8291650414466858e-01</le></_></splits></_>
        <_>
          <depth>1</depth>
          <value>-2.8392281219340190e-02</value></_>
        <_>
          <depth>1</depth>
          <value>4.4600442372356573e-02</value></_></nodes></_>
    <_>
      <nodes>
        <_>
          <depth>0</depth>
          <value>2.2480373113529302e-10</value>
          <splits>
            <_><var>5</var>
              <quality>1.2152160052210093e-03</quality>
              <le>4.1728850454092026e-02</le></_></splits></_>
        <_>
          <depth>1</depth>
          <value>-5.4068862796475145e-02</value></_>
        <_>
          <depth>1</depth>
          <value>2.2501032407309270e-02</value></_></nodes></_>
    <_>
      <nodes>
        <_>
          <depth>0</depth>
          <value>-1.0205636337066331e-10</value>
          <splits>
            <_><var>16</var>
              <quality>1.0902868816629052e-03</quality>
              <le>1.1103399991989136e+00</le></_></splits></_>
        <_>
          <depth>1</depth>
          <value>6.4544933295450149e-02</value></_>
        <_>
          <depth>1</depth>
          <value>-1.6916969657089644e-02</value></_></nodes></_>
    <_>
      <nodes>
        <_>
          <depth>0</depth>
          <value>5.7137805565370333e-10</value>
          <splits>
            <_><var>9</var>
              <quality>6.8948423722758889e-04</quality>
              <le>5.0037249922752380e-02</le></_></splits></_>
        <_>
          <depth>1</depth>
          <value>-3.7267194946010343e-02</value></_>
        <_>
          <depth>1</depth>
          <value>1.8511782461548547e-02</value></_></nodes></_>
    <_>
      <nodes>
        <_>
          <depth>0</depth>
          <value>-1.1613370278937877e-09</value>
          <splits>
            <_><var>13</var>
              <quality>1.0826744837686419e-03</quality>
              <le>1.1285000294446945e-01</le></_></splits></_>
        <_>
          <depth>1</depth>
          <value>3.8607179802971077e-02</value></_>
        <_>
          <depth>1</depth>
          <value>-2.8064641904692791e-02</value></_></nodes></_>
    <_>
      <nodes>
        <_>
          <depth>0</depth>
          <value>-1.8851975536549174e-11</value>
          <splits>
            <_><var>13</var>
              <quality>1.0629342868924141e-03</quality>
              <le>1.9289650022983551e-02</le></_></splits></_>
        <_>
          <depth>1</depth>
          <value>-4.8369414312510607e-02</value></_>
        <_>
          <depth>1</depth>
          <value>2.1996020200730746e-02</value></_></nodes></_>
    <_>
      <nodes>
        <_>
          <depth>0</depth>
          <value>7.9242456977813282e-10</value>
          <splits>
            <_><var>11</var>
              <quality>9.1048661852255464e-04</quality>
              <le>4.6158549189567566e-01</le></_></splits></_>
        <_>
          <depth>1</depth>
          <value>-2.4162891793191917e-02</value></_>
        <_>
          <depth>1</depth>
          <value>3.7706387619504886e-02</value></_></nodes></_>
    <_>
      <nodes>
        <_>
          <depth>0</depth>
          <value>7.9587181226411872e-10</value>
          <splits>
            <_><var>11</var>
              <quality>8.3141081267967820e-04</quality>
              <le>2.0152150094509125e-01</le></_></splits></_>
        <_>
          <depth>1</depth>
          <value>5.2413870453097297e-02</value></_>
        <_>
          <depth>1</depth>
          <value>-1.5878276242948595e-02</value></_></nodes></_>
    <_>
      <nodes>
        <_>
          <depth>0</depth>
          <value>6.9077077343738647e-10</value>
          <splits>
            <_><var>4</var>
              <quality>8.1918342038989067e-04</quality>
              <le>6.0001450777053833e-01</le></_></splits></_>
        <_>
          <depth>1</depth>
          <value>1.3285504223968547e-02</value></_>
        <_>
          <depth>1</depth>
          <value>-6.1741907676096205e-02</value></_></nodes></_>
    <_>
      <nodes>
        <_>
          <depth>0</depth>
          <value>-4.4717424227970458e-10</value>
          <splits>
            <_><var>10</var>
              <quality>8.8379043154418468e-04</quality>
              <le>6.7294999957084656e-02</le></_></splits></_>
        <_>
          <depth>1</depth>
          <value>8.7325459422126578e-02</value></_>
        <_>
          <depth>1</depth>
          <value>-1.0146711295623561e-02</value></_></nodes></_>
    <_>
      <nodes>
        <_>
          <depth>0</depth>
          <value>-4.3122638811731668e-10</value>
          <splits>
            <_><var>4</var>
              <quality>6.5493199508637190e-04</quality>
              <le>9.9349904060363770e-01</le></_></splits></_>
        <_>
          <depth>1</depth>
          <value>1.2683762551022192e-03</value></_>
        <_>
          <depth>1</depth>
          <value>-5.7135645700056348e-01</value></_></nodes></_>
    <_>
      <nodes>
        <_>
          <depth>0</depth>
          <value>4.6597836698185865e-11</value>
          <splits>
            <_><var>0</var>
              <quality>6.3263770425692201e-04</quality>
              <le>3.2205000000000000e+03</le></_></splits></_>
        <_>
          <depth>1</depth>
          <value>6.5296115712358213e-04</value></_>
        <_>
          <depth>1</depth>
          <value>-2.0736060892278512e+00</value></_></nodes></_>
    <_>
      <nodes>
        <_>
          <depth>0</depth>
          <value>2.6492141813535300e-12</value>
          <splits>
            <_><var>1</var>
              <quality>5.8397965040057898e-04</quality>
              <le>4.7250000000000000e+02</le></_></splits></_>
        <_>
          <depth>1</depth>
          <value>-1.1228183417526846e-03</value></_>
        <_>
          <depth>1</depth>
          <value>5.7647937198092158e-01</value></_></nodes></_>
    <_>
      <nodes>
        <_>
          <depth>0</depth>
          <value>-1.9451162902962322e-11</value>
          <splits>
            <_><var>2</var>
              <quality>6.3481373945251107e-04</quality>
              <le>3.4750000000000000e+02</le></_></splits></_>
        <_>
          <depth>1</depth>
          <value>1.3968417113194554e-03</value></_>
        <_>
          <depth>1</depth>
          <value>-4.9031186005524929e-01</value></_></nodes></_>
    <_>
      <nodes>
        <_>
          <depth>0</depth>
          <value>-4.8219206405752306e-12</value>
          <splits>
            <_><var>3</var>
              <quality>5.7017116341739893e-04</quality>
              <le>6.4847451448440552e-01</le></_></splits></_>
        <_>
          <depth>1</depth>
          <value>-6.0341839544795807e-03</value></_>
        <_>
          <depth>1</depth>
          <value>9.4774071101290172e-02</value></_></nodes></_>
    <_>
      <nodes>
        <_>
          <depth>0</depth>
          <value>5.8614002537044610e-11</value>
          <splits>
            <_><var>4</var>
              <quality>7.4394850526005030e-04</quality>
              <le>7.0839101076126099e-01</le></_></splits></_>
        <_>
          <depth>1</depth>
          <value>1.0671616617904651e-02</value></_>
        <_>
          <depth>1</depth>
          <value>-6.9828744501977305e-02</value></_></nodes></_>
    <_>
      <nodes>
        <_>
          <depth>0</depth>
          <value>-3.5592556692399349e-10</value>
          <splits>
            <_><var>7</var>
              <quality>8.3452957915142179e-04</quality>
              <le>8.5800103843212128e-03</le></_></splits></_>
        <_>
          <depth>1</depth>
          <value>7.6292830734835559e-02</value></_>
        <_>
          <depth>1</depth>
          <value>-1.0960159584781866e-02</value></_></nodes></_>
    <_>
      <nodes>
        <_>
          <depth>0</depth>
          <value>5.8625859688013298e-10</value>
          <splits>
            <_><var>8</var>
              <quality>8.3512626588344574e-04</quality>
              <le>7.8926497371867299e-04</le></_></splits></_>
        <_>
          <depth>1</depth>
          <value>-1.3425336594414114e-01</value></_>
        <_>
          <depth>1</depth>
          <value>6.2579341019587311e-03</value></_></nodes></_>
    <_>
      <nodes>
        <_>
          <depth>0</depth>
          <value>1.5028578379500836e-10</value>
          <splits>
            <_><var>8</var>
              <quality>8.5484090959653258e-04</quality>
              <le>3.1501448154449463e-01</le></_></splits></_>
        <_>
          <depth>1</depth>
          <value>6.3194485456469315e-02</value></_>
        <_>
          <depth>1</depth>
          <value>-1.3545974492139417e-02</value></_></nodes></_>
    <_>
      <nodes>
        <_>
          <depth>0</depth>
          <value>6.6467942256865512e-11</value>
          <splits>
            <_><var>0</var>
              <quality>8.6711870972067118e-04</quality>
              <le>1.4500000000000000e+01</le></_></splits></_>
        <_>
          <depth>1</depth>
          <value>2.7969301915119038e-02</value></_>
        <_>
          <depth>1</depth>
          <value>-3.1020544529635603e-02</value></_></nodes></_>
    <_>
      <nodes>
        <_>
          <depth>0</depth>
          <value>-3.9375697162796955e-10</value>
          <splits>
            <_><var>16</var>
              <quality>8.3061400800943375e-04</quality>
              <le>8.4582805633544922e+00</le></_></splits></_>
        <_>
          <depth>1</depth>
          <value>-2.7303800738415318e-02</value></_>
        <_>
          <depth>1</depth>
          <value>3.0438143263038151e-02</value></_></nodes></_>
    <_>
      <nodes>
        <_>
          <depth>0</depth>
          <value>-6.3117955346618315e-10</value>
          <splits>
            <_><var>13</var>
              <quality>8.4293948020786047e-04</quality>
              <le>1.1143900454044342e-01</le></_></splits></_>
        <_>
          <depth>1</depth>
          <value>3.4072203595854833e-02</value></_>
        <_>
          <depth>1</depth>
          <value>-2.4754427276028761e-02</value></_></nodes></_>
    <_>
      <nodes>
        <_>
          <depth>0</depth>
          <value>-7.1300115862304953e-10</value>
          <splits>
            <_><var>0</var>
              <quality>7.9024751903489232e-04</quality>
              <le>3.5000000000000000e+00</le></_></splits></_>
        <_>
          <depth>1</depth>
          <value>-4.8700341048646213e-02</value></_>
        <_>
          <depth>1</depth>
          <value>1.6240988137296856e-02</value></_></nodes></_>
    <_>
      <nodes>
        <_>
          <depth>0</depth>
          <value>-8.1194218022260230e-11</value>
          <splits>
            <_><var>1</var>
              <quality>7.8265590127557516e-04</quality>
              <le>5.5000000000000000e+00</le></_></splits></_>
        <_>
          <depth>1</depth>
          <value>3.3438069785382780e-02</value></_>
        <_>
          <depth>1</depth>
          <value>-2.3419135509064083e-02</value></_></nodes></_>
    <_>
      <nodes>
        <_>
          <depth>0</depth>
          <value>-3.5544900369033410e-10</value>
          <splits>
            <_><var>6</var>
              <quality>5.8216042816638947e-04</quality>
              <le>1.6090150456875563e-03</le></_></splits></_>
        <_>
          <depth>1</depth>
          <value>1.9151969509265329e-01</value></_>
        <_>
          <depth>1</depth>
          <value>-3.0767742109138315e-03</value></_></nodes></_>
    <_>
      <nodes>
        <_>
          <depth>0</depth>
          <value>1.2878276221546421e-10</value>
          <splits>
            <_><var>6</var>
              <quality>8.5125816985964775e-04</quality>
              <le>3.1259749084711075e-03</le></_></splits></_>
        <_>
          <depth>1</depth>
          <value>-1.5065399456731615e-01</value></_>
        <_>
          <depth>1</depth>
          <value>5.6931643547460525e-03</value></_></nodes></_>
    <_>
      <nodes>
        <_>
          <depth>0</depth>
          <value>-7.3463679589448447e-11</value>
          <splits>
            <_><var>5</var>
              <quality>7.2987453313544393e-04</quality>
              <le>9.9522495269775391e-01</le></_></splits></_>
        <_>
          <depth>1</depth>
          <value>-3.9120105730186963e-03</value></_>
        <_>
          <depth>1</depth>
          <value>1.8878492834108063e-01</value></_></nodes></_>
    <_>
      <nodes>
        <_>
          <depth>0</depth>
          <value>1.4467649298704674e-10</value>
          <splits>
            <_><var>5</var>
              <quality>5.6342728203162551e-04</quality>
              <le>6.4274249598383904e-03</le></_></splits></_>
        <_>
          <depth>1</depth>
          <value>7.0325108887520124e-02</value></_>
        <_>
          <depth>1</depth>
          <value>-8.0251270408904056e-03</value></_></nodes></_>
    <_>
      <nodes>
        <_>
          <depth>0</depth>
          <value>6.3541905030587171e-10</value>
          <splits>
            <_><var>5</var>
              <quality>1.0640647960826755e-03</quality>
              <le>6.2728701159358025e-03</le></_></splits></_>
        <_>
          <depth>1</depth>
          <value>-1.0404717255267767e-01</value></_>
        <_>
          <depth>1</depth>
          <value>1.0263992807717361e-02</value></_></nodes></_>
    <_>
      <nodes>
        <_>
          <depth>0</depth>
          <value>2.3421264922006746e-10</value>
          <splits>
            <_><var>5</var>
              <quality>9.2919624876230955e-04</quality>
              <le>6.4274249598383904e-03</le></_></splits></_>
        <_>
          <depth>1</depth>
          <value>9.0781456835216531e-02</value></_>
        <_>
          <depth>1</depth>
          <value>-1.0263992051295762e-02</value></_></nodes></_>
    <_>
      <nodes>
        <_>
          <depth>0</depth>
          <value>2.8936275589484196e-10</value>
          <splits>
            <_><var>5</var>
              <quality>8.1116432556882501e-04</quality>
              <le>6.2728701159358025e-03</le></_></splits></_>
        <_>
          <depth>1</depth>
          <value>-9.0781458503326320e-02</value></_>
        <_>
          <depth>1</depth>
          <value>8.9601249438662212e-03</value></_></nodes></_>
    <_>
      <nodes>
        <_>
          <depth>0</depth>
          <value>-1.5444351355751693e-10</value>
          <splits>
            <_><var>5</var>
              <quality>7.2566157905384898e-04</quality>
              <le>6.3458504155278206e-03</le></_></splits></_>
        <_>
          <depth>1</depth>
          <value>8.1000109428527658e-02</value></_>
        <_>
          <depth>1</depth>
          <value>-8.9785987114688621e-03</value></_></nodes></_>
    <_>
      <nodes>
        <_>
          <depth>0</depth>
          <value>-2.2040347329860808e-10</value>
          <splits>
            <_><var>7</var>
              <quality>7.1658648084849119e-04</quality>
              <le>4.9903202056884766e-01</le></_></splits></_>
        <_>
          <depth>1</depth>
          <value>3.7166185689019660e-03</value></_>
        <_>
          <depth>1</depth>
          <value>-1.9525081804121150e-01</value></_></nodes></_>
    <_>
      <nodes>
        <_>
          <depth>0</depth>
          <value>1.5925949445567080e-10</value>
          <splits>
            <_><var>3</var>
              <quality>6.1245536198839545e-04</quality>
              <le>2.5337898731231689e-01</le></_></splits></_>
        <_>
          <depth>1</depth>
          <value>-1.1984507718559601e-02</value></_>
        <_>
          <depth>1</depth>
          <value>5.1150932844881550e-02</value></_></nodes></_>
    <_>
      <nodes>
        <_>
          <depth>0</depth>
          <value>-1.4589840449016683e-10</value>
          <splits>
            <_><var>7</var>
              <quality>7.9384003765881062e-04</quality>
              <le>2.6553049683570862e-01</le></_></splits></_>
        <_>
          <depth>1</depth>
          <value>-2.6706406873870197e-02</value></_>
        <_>
          <depth>1</depth>
          <value>2.9740534862371312e-02</value></_></nodes></_>
    <_>
      <nodes>
        <_>
          <depth>0</depth>
          <value>5.1685988819542868e-11</value>
          <splits>
            <_><var>9</var>
              <quality>7.8987126471474767e-04</quality>
              <le>2.3851649835705757e-02</le></_></splits></_>
        <_>
          <depth>1</depth>
          <value>-5.2553573728070964e-02</value></_>
        <_>
          <depth>1</depth>
          <value>1.5044799202023972e-02</value></_></nodes></_>
    <_>
      <nodes>
        <_>
          <depth>0</depth>
          <value>4.9022141877357498e-10</value>
          <splits>
            <_><var>9</var>
              <quality>6.7896564723923802e-04</quality>
              <le>1.4978749677538872e-02</le></_></splits></_>
        <_>
          <depth>1</depth>
          <value>6.4041141069300436e-02</value></_>
        <_>
          <depth>1</depth>
          <value>-1.0616911025980461e-02</value></_></nodes></_>
    <_>
      <nodes>
        <_>
          <depth>0</depth>
          <value>1.5174861365181262e-10</value>
          <splits>
            <_><var>12</var>
              <quality>6.2328146304935217e-04</quality>
              <le>9.9974250793457031e-01</le></_></splits></_>
        <_>
          <depth>1</depth>
          <value>1.3138978046903746e-02</value></_>
        <_>
          <depth>1</depth>
          <value>-4.7475960064837647e-02</value></_></nodes></_>
    <_>
      <nodes>
        <_>
          <depth>0</depth>
          <value>1.9382273560149257e-10</value>
          <splits>
            <_><var>12</var>
              <quality>6.1777746304869652e-04</quality>
              <le>8.3368802070617676e-01</le></_></splits></_>
        <_>
          <depth>1</depth>
          <value>-2.8443743980994269e-02</value></_>
        <_>
          <depth>1</depth>
          <value>2.1728549063273660e-02</value></_></nodes></_>
    <_>
      <nodes>
        <_>
          <depth>0</depth>
          <value>1.3341594494061510e-10</value>
          <splits>
            <_><var>9</var>
              <quality>9.2983810463920236e-04</quality>
              <le>5.0037249922752380e-02</le></_></splits></_>
        <_>
          <depth>1</depth>
          <value>-4.3368503667388716e-02</value></_>
        <_>
          <depth>1</depth>
          <value>2.1457133705043322e-02</value></_></nodes></_>
    <_>
      <nodes>
        <_>
          <depth>0</depth>
          <value>-1.4485257440066584e-10</value>
          <splits>
            <_><var>10</var>
              <quality>6.1505875783041120e-04</quality>
              <le>4.8291650414466858e-01</le></_></splits></_>
        <_>
          <depth>1</depth>
          <value>-1.9734992981209551e-02</value></_>
        <_>
          <depth>1</depth>
          <value>3.1180043574637346e-02</value></_></nodes></_>
    <_>
      <nodes>
        <_>
          <depth>0</depth>
          <value>6.7536176605505981e-10</value>
          <splits>
            <_><var>10</var>
              <quality>1.0429947869852185e-03</quality>
              <le>4.9993249773979187e-01</le></_></splits></_>
        <_>
          <depth>1</depth>
          <value>1.6311383736471886e-02</value></_>
        <_>
          <depth>1</depth>
          <value>-6.4035811424526745e-02</value></_></nodes></_>
    <_>
      <nodes>
        <_>
          <depth>0</depth>
          <value>5.0533244230209923e-10</value>
          <splits>
            <_><var>2</var>
              <quality>5.2903918549418449e-04</quality>
              <le>2.0500000000000000e+01</le></_></splits></_>
        <_>
          <depth>1</depth>
          <value>7.3052967065272822e-03</value></_>
        <_>
          <depth>1</depth>
          <value>-7.2546875549930709e-02</value></_></nodes></_>
    <_>
      <nodes>
        <_>
          <depth>0</depth>
          <value>2.2309110109827333e-10</value>
          <splits>
            <_><var>0</var>
              <quality>5.9727649204432964e-04</quality>
              <le>1.5150000000000000e+02</le></_></splits></_>
        <_>
          <depth>1</depth>
          <value>-1.0289713116398919e-02</value></_>
        <_>
          <depth>1</depth>
          <value>5.8113361316334648e-02</value></_></nodes></_>
    <_>
      <nodes>
        <_>
          <depth>0</depth>
          <value>-4.6019343912323835e-10</value>
          <splits>
            <_><var>7</var>
              <quality>7.3206145316362381e-04</quality>
              <le>4.6275751665234566e-03</le></_></splits></_>
        <_>
          <depth>1</depth>
          <value>-8.7309689590686440e-02</value></_>
        <_>
          <depth>1</depth>
          <value>8.4061450610422965e-03</value></_></nodes></_>
    <_>
      <nodes>
        <_>
          <depth>0</depth>
          <value>-5.0938830957049717e-10</value>
          <splits>
            <_><var>9</var>
              <quality>4.6911663957871497e-04</quality>
              <le>9.9528849124908447e-01</le></_></splits></_>
        <_>
          <depth>1</depth>
          <value>-1.4985271166981951e-03</value></_>
        <_>
          <depth>1</depth>
          <value>3.2392562543735365e-01</value></_></nodes></_>
    <_>
      <nodes>
        <_>
          <depth>0</depth>
          <value>5.9763527456605426e-11</value>
          <splits>
            <_><var>4</var>
              <quality>5.0606962759047747e-04</quality>
              <le>9.8333400487899780e-01</le></_></splits></_>
        <_>
          <depth>1</depth>
          <value>1.8060865875496332e-03</value></_>
        <_>
          <depth>1</depth>
          <value>-2.8790195412509839e-01</value></_></nodes></_>
    <_>
      <nodes>
        <_>
          <depth>0</depth>
          <value>4.3909764711206724e-11</value>
          <splits>
            <_><var>7</var>
              <quality>4.9045711057260633e-04</quality>
              <le>4.8038799315690994e-02</le></_></splits></_>
        <_>
          <depth>1</depth>
          <value>3.3969469506130730e-02</value></_>
        <_>
          <depth>1</depth>
          <value>-1.4444731748228684e-02</value></_></nodes></_>
    <_>
      <nodes>
        <_>
          <depth>0</depth>
          <value>2.9298941042497050e-10</value>
          <splits>
            <_><var>10</var>
              <quality>7.6249428093433380e-04</quality>
              <le>4.8638799786567688e-01</le></_></splits></_>
        <_>
          <depth>1</depth>
          <value>-2.1088774143797583e-02</value></_>
        <_>
          <depth>1</depth>
          <value>3.6177541244027188e-02</value></_></nodes></_>
    <_>
      <nodes>
        <_>
          <depth>0</depth>
          <value>-7.8027140365353121e-10</value>
          <splits>
            <_><var>5</var>
              <quality>5.9398659504950047e-04</quality>
              <le>6.2728701159358025e-03</le></_></splits></_>
        <_>
          <depth>1</depth>
          <value>-7.7446181490242974e-02</value></_>
        <_>
          <depth>1</depth>
          <value>7.6851480221882731e-03</value></_></nodes></_>
    <_>
      <nodes>
        <_>
          <depth>0</depth>
          <value>1.9846613237786327e-10</value>
          <splits>
            <_><var>5</var>
              <quality>6.3234876142814755e-04</quality>
              <le>1.7652250826358795e-03</le></_></splits></_>
        <_>
          <depth>1</depth>
          <value>1.9716912198962869e-01</value></_>
        <_>
          <depth>1</depth>
          <value>-3.2486026263669919e-03</value></_></nodes></_>
    <_>
      <nodes>
        <_>
          <depth>0</depth>
          <value>-5.8440419173995358e-11</value>
          <splits>
            <_><var>5</var>
              <quality>5.5110751418396831e-04</quality>
              <le>1.5372800407931209e-03</le></_></splits></_>
        <_>
          <depth>1</depth>
          <value>-2.3427381217303420e-01</value></_>
        <_>
          <depth>1</depth>
          <value>2.3952921361517945e-03</value></_></nodes></_>
    <_>
      <nodes>
        <_>
          <depth>0</depth>
          <value>2.9902302855149966e-11</value>
          <splits>
            <_><var>7</var>
              <quality>6.4246082911267877e-04</quality>
              <le>4.9935752153396606e-01</le></_></splits></_>
        <_>
          <depth>1</depth>
          <value>-2.2776954386283044e-03</value></_>
        <_>
          <depth>1</depth>
          <value>2.8992593525221833e-01</value></_></nodes></_>
    <_>
      <nodes>
        <_>
          <depth>0</depth>
          <value>-7.8625772565530673e-11</value>
          <splits>
            <_><var>11</var>
              <quality>4.8139091813936830e-04</quality>
              <le>4.9858799576759338e-01</le></_></splits></_>
        <_>
          <depth>1</depth>
          <value>-1.9516869536020580e-03</value></_>
        <_>
          <depth>1</depth>
          <value>2.5184699638340263e-01</value></_></nodes></_>
    <_>
      <nodes>
        <_>
          <depth>0</depth>
          <value>-5.1218140842260572e-11</value>
          <splits>
            <_><var>11</var>
              <quality>8.3927187370136380e-04</quality>
              <le>4.9993249773979187e-01</le></_></splits></_>
        <_>
          <depth>1</depth>
          <value>2.1142037845944318e-03</value></_>
        <_>
          <depth>1</depth>
          <value>-4.2004564129987915e-01</value></_></nodes></_>
    <_>
      <nodes>
        <_>
          <depth>0</depth>
          <value>3.9267478156425226e-11</value>
          <splits>
            <_><var>11</var>
              <quality>6.1865890165790915e-04</quality>
              <le>4.9858799576759338e-01</le></_></splits></_>
        <_>
          <depth>1</depth>
          <value>-2.1142037906344579e-03</value></_>
        <_>
          <depth>1</depth>
          <value>3.0143000851343033e-01</value></_></nodes></_>
    <_>
      <nodes>
        <_>
          <depth>0</depth>
          <value>-8.8427432051222503e-11</value>
          <splits>
            <_><var>7</var>
              <quality>5.1721255294978619e-04</quality>
              <le>4.9919348955154419e-01</le></_></splits></_>
        <_>
          <depth>1</depth>
          <value>2.5949101686353537e-03</value></_>
        <_>
          <depth>1</depth>
          <value>-2.0202279328270545e-01</value></_></nodes></_>
    <_>
      <nodes>
        <_>
          <depth>0</depth>
          <value>4.1429082385195974e-11</value>
          <splits>
            <_><var>7</var>
              <quality>4.8198609147220850e-04</quality>
              <le>4.9683851003646851e-01</le></_></splits></_>
        <_>
          <depth>1</depth>
          <value>-7.1180010421968967e-03</value></_>
        <_>
          <depth>1</depth>
          <value>6.7818611073434107e-02</value></_></nodes></_>
    <_>
      <nodes>
        <_>
          <depth>0</depth>
          <value>-9.1577856410069314e-12</value>
          <splits>
            <_><var>7</var>
              <quality>6.6410365980118513e-04</quality>
              <le>4.9686998128890991e-01</le></_></splits></_>
        <_>
          <depth>1</depth>
          <value>7.9213785140578932e-03</value></_>
        <_>
          <depth>1</depth>
          <value>-8.4035900171433711e-02</value></_></nodes></_>
    <_>
      <nodes>
        <_>
          <depth>0</depth>
          <value>6.1455462903017112e-10</value>
          <splits>
            <_><var>7</var>
              <quality>6.0058129020035267e-04</quality>
              <le>4.9683851003646851e-01</le></_></splits></_>
        <_>
          <depth>1</depth>
          <value>-7.9213780558371298e-03</value></_>
        <_>
          <depth>1</depth>
          <value>7.5965146340488371e-02</value></_></nodes></_>
    <_>
      <nodes>
        <_>
          <depth>0</depth>
          <value>3.1089131259703067e-10</value>
          <splits>
            <_><var>7</var>
              <quality>5.6620396208018064e-04</quality>
              <le>4.9548599123954773e-01</le></_></splits></_>
        <_>
          <depth>1</depth>
          <value>9.6059278821967048e-03</value></_>
        <_>
          <depth>1</depth>
          <value>-5.9013410061177995e-02</value></_></nodes></_>
    <_>
      <nodes>
        <_>
          <depth>0</depth>
          <value>-1.9243368013883079e-10</value>
          <splits>
            <_><var>5</var>
              <quality>5.5566593073308468e-04</quality>
              <le>1.3692749664187431e-02</le></_></splits></_>
        <_>
          <depth>1</depth>
          <value>5.1027757934107756e-02</value></_>
        <_>
          <depth>1</depth>
          <value>-1.0899364589168389e-02</value></_></nodes></_>
    <_>
      <nodes>
        <_>
          <depth>0</depth>
          <value>6.0378790819507891e-10</value>
          <splits>
            <_><var>15</var>
              <quality>5.8324728161096573e-04</quality>
              <le>7.2454147040843964e-02</le></_></splits></_>
        <_>
          <depth>1</depth>
          <value>-7.9570750175818036e-02</value></_>
        <_>
          <depth>1</depth>
          <value>7.3455166013961246e-03</value></_></nodes></_>
    <_>
      <nodes>
        <_>
          <depth>0</depth>
          <value>-2.8169605545022518e-10</value>
          <splits>
            <_><var>13</var>
              <quality>4.7499226639047265e-04</quality>
              <le>2.2926950454711914e+00</le></_></splits></_>
        <_>
          <depth>1</depth>
          <value>2.1156162492479854e-03</value></_>
        <_>
          <depth>1</depth>
          <value>-2.2840840320333639e-01</value></_></nodes></_>
    <_>
      <nodes>
        <_>
          <depth>0</depth>
          <value>-1.5528200949712479e-10</value>
          <splits>
            <_><var>13</var>
              <quality>4.3831023504026234e-04</quality>
              <le>3.1197750568389893e+00</le></_></splits></_>
        <_>
          <depth>1</depth>
          <value>-5.2400803269250405e-04</value></_>
        <_>
          <depth>1</depth>
          <value>1.2092602002712247e+00</value></_></nodes></_>
    <_>
      <nodes>
        <_>
          <depth>0</depth>
          <value>-3.4936109562066338e-11</value>
          <splits>
            <_><var>16</var>
              <quality>4.3667375575751066e-04</quality>
              <le>9.1453552246093750e+01</le></_></splits></_>
        <_>
          <depth>1</depth>
          <value>8.0347675661311007e-04</value></_>
        <_>
          <depth>1</depth>
          <value>-6.0908169050719430e-01</value></_></nodes></_>
    <_>
      <nodes>
        <_>
          <depth>0</depth>
          <value>-3.1094626874307180e-11</value>
          <splits>
            <_><var>11</var>
              <quality>4.1872181463986635e-04</quality>
              <le>4.9993249773979187e-01</le></_></splits></_>
        <_>
          <depth>1</depth>
          <value>1.4602619897982430e-03</value></_>
        <_>
          <depth>1</depth>
          <value>-2.9501549298467972e-01</value></_></nodes></_>
    <_>
      <nodes>
        <_>
          <depth>0</depth>
